0.268115 0.000760 0.214975 0.179392 -0.052173 0.046704 -0.268669 0.258881 0.708571 0.432865 -0.241890 0.255686 -0.036297 0.116011 -0.068896 0.207519 -0.636597 -0.039704 -0.273189 0.149907 -0.123474 0.014353 0.787641 -0.023810 -0.160064 -0.111344 -0.033821 -0.054649 0.004506 0.571118 -0.092234 -0.081372 0.236191 0.057408 -0.083417 -0.098862 -0.217094 0.221439 -0.098386 -0.041533 0.245971 0.141599 -0.106638 0.034226 0.262167 -0.009482 -0.432809 -0.098426 -0.086494 0.257863 0.129867 0.142884 -0.142017 0.174203 -0.064589 -0.048664 0.094373 0.101827 -0.120069 -0.187841 0.363284 1.411660 -1.369805 -0.122166 0.158285 -0.047545 0.092179 -0.015562 0.260756 0.212190 0.081466 0.293088 -0.163538 -0.114233 0.022589 -0.102873 -0.094683 0.305162 -0.362772 0.253470 0.230287 0.217696 0.081233 -0.150072 -1.096704 0.095406 -0.470602 0.019997 -0.059307 0.176645 0.260504 -0.127527 0.059017 0.216783 0.067619 -0.457338 -0.242530 0.236248 0.078389 -0.104286 0.171676 -0.469305 -0.074323 0.272615 0.078568 0.320760 -1.069864 0.149073 0.230508 0.095534 -0.044916 0.238813 0.110392 -0.150450 0.145388 0.060825 0.206486 -0.067841 0.293689 -0.102102 0.162675 -0.090147 0.049973 -0.158918 0.169373 0.522882 0.282671 -0.033320 0.184162 -0.271953 0.179564 0.089144 0.393353 0.223663 -0.108134 -0.484156 0.270542 0.057356 0.314843 0.069859 -0.172161 -0.100100 0.194995 0.041003 -0.099298 -0.196144 0.235255 -0.069177 -0.537464 0.114713 0.057084 0.131070 -0.106068 -0.177664 0.077813 -0.513838 0.041849 -0.321342 -0.044533 0.024287 0.074119 -0.547972 -0.227933 -0.491210 0.075005 -0.084952 0.174466 0.113022 -0.221283 0.095661 -0.012050 -0.440014 0.675339 0.213886 0.217285 -0.456578 -0.358505 -0.073117 -0.204946 -0.063764 0.067844 0.149521 0.131900 0.204315 0.121848 -0.144814 0.229979 -0.247617 0.099706 0.726280 0.102226 -0.071006 -0.240988 -0.028809 -0.106849 0.486800 0.301852 -1.433034 -0.454615 -0.013302
