0.016647 0.433939 0.209914 -1.024448 -1.348823 -0.633027 -0.366277 0.290302 0.212288 -1.641087 0.340350 0.452751 -0.905638 0.094914 0.063381 -0.571500 -0.867568 -0.370773 -0.347277 -0.935585 -0.926471 -0.420326 0.623792 0.671909 1.124148 0.145944 0.997202 -0.474625 -0.360209 -1.339914 -1.739636 -0.332730 0.364232 -0.808489 -0.813446 0.453572 -0.073469 0.410618 -0.358109 0.427475 0.536498 -0.220846 0.156152 -0.649571 -0.481678 -0.976607 0.208628 0.259274 0.476231 0.163347 0.592273 -1.082368 -0.613854 -0.774964 1.259316 1.172159 -0.367712 -1.273422 -0.462423 -0.081967 -1.473484 1.537715 -0.625938 0.728823 1.745047 -1.257792 1.548039 -0.567012 -1.594088 1.949043 -0.539069 -0.180029 0.208443 -0.232895 0.790621 -0.253363 0.303933 -0.156318 1.148860 -0.428288 0.420869 -0.282291 -0.931944 -0.363210 0.648431 0.005687 -0.891030 -0.226240 0.541869 0.452086 0.608359 -1.349122 0.449953 -0.277530 -0.157564 -0.773142 0.169144 0.296378 -0.526113 1.028241 0.440802 0.153357 0.565485 0.582743 0.892305 0.026986 -0.217889 0.636278 -2.073783 -0.826287 0.321631 -1.641106 -1.369181 0.322481 0.858695 0.654607 0.523671 0.683545 0.110840 2.044850 -0.376851 0.451550 0.031491 -0.170853 0.545188 -0.552308 -0.037442 1.131246 1.038727 0.799037 -0.509076 0.222561 2.435477 0.136236 -0.379438 0.720589 -0.029972 0.250258 -0.215070 -1.887734 0.611576 0.268170 0.350366 1.495318 0.375652 1.704074 0.031914 -2.033919 -0.472036 1.023190 -0.813032 1.515869 -0.341552 0.072422 -0.597166 -0.731429 -0.411345 -0.054072 -1.218729 0.398367 -0.231059 0.720941 -1.169149 -0.243490 1.126096 -0.041767 1.924043 0.765764 0.324006 -0.551115 -1.859983 0.375647 -1.054818 0.377488 0.229578 -0.126710 1.322968 -1.875481 0.282481 -0.138433 -0.278892 -0.960828 0.635973 -2.185819 0.898690 1.279771 0.012906 0.523330 0.576636 0.680303 -0.891787 0.610817 -0.050864 -0.047850 0.121250 -0.808408 0.091881 -0.173635 1.518873 0.558860
-0.707596 -0.055802 0.001370 0.958346 0.516988 0.354660 -0.065112 -0.860358 -2.780190 -2.433856 0.352247 1.083140 0.262415 1.551404 0.349403 -0.557273 -0.766679 0.647236 2.468521 1.661988 -1.264798 -0.707040 -3.475051 0.157621 -0.320012 0.322277 1.117586 -1.379064 1.034060 0.984295 0.477845 0.660518 -0.894368 1.103158 -0.293738 0.453109 0.537330 -0.943092 -1.221871 1.659330 0.990575 -0.942224 0.499093 0.946349 -0.554015 -0.789460 1.975021 0.532857 0.307440 -0.841154 0.046603 -0.099953 0.235011 -0.261832 1.022204 1.193484 -0.330664 -0.001089 -0.313471 1.032031 0.816630 -10.302379 0.458892 0.158903 -0.470081 0.287574 0.060581 0.952305 1.640494 -0.845934 -1.497424 -0.559548 0.159187 0.626789 -0.351420 0.698699 0.464535 -0.557795 -1.077147 -0.578597 -0.949676 1.101730 0.464446 0.714281 -0.649822 1.602374 0.002386 -0.259352 1.601918 -0.887547 1.443732 0.296952 -2.310334 -0.731690 -1.913961 3.253525 0.430549 -0.778524 0.096719 -2.663141 -0.835715 5.086417 -0.750649 0.964122 -1.215504 -0.636618 0.394659 1.049766 -0.764120 1.187810 -1.876711 -0.957275 0.113559 0.382117 -1.337764 0.029261 -1.001299 0.353672 -0.710139 0.535526 0.188746 -0.369297 -1.907939 -1.309734 -0.050270 -1.902712 -0.672659 -3.251642 0.884556 -0.294953 0.422052 -0.355071 -0.282866 1.352363 0.717326 -0.642652 -0.707453 -2.120222 -4.423633 -0.658716 1.784359 0.625603 -0.905708 0.624257 0.554912 1.508496 1.323465 0.107420 0.212583 -0.057510 1.074685 -0.279547 -0.354480 0.493953 -1.449463 -1.515473 -0.235954 -0.813488 -1.699161 -2.237443 -0.881675 0.042533 0.013231 0.409618 -0.522106 -1.998174 -0.820375 -2.780739 1.888341 1.586758 0.418642 1.020763 -3.994498 -0.940082 1.396244 0.438688 3.049328 -0.649949 1.590640 -1.587947 1.798737 -0.165268 -0.069500 -0.421757 1.137068 0.919800 -0.600385 4.044037 1.195288 -3.469578 -0.369611 1.416051 2.254127 -0.733220 0.514867 -3.911830 -0.680313 0.498851 2.839268 -2.263961
