1.043609
-1.510554
1.040875
-0.461341
0.070753
0.033356
-0.319606
2.037010
-0.570707
0.414814
-1.156927
0.889060
-0.747230
0.367970
-2.746736
0.446665
0.026269
-1.355521
0.658289
0.371739
-0.373040
0.112028
-1.920627
-1.787871
-0.342153
-1.460027
0.593973
-1.100021
-2.364958
-1.145854
0.350096
-0.899605
2.057525
-1.419957
-1.182589
-0.818249
-0.184563
1.016221
-0.833033
1.159182
0.617476
0.437214
-0.817794
-0.846519
1.593241
1.632688
1.188609
-1.346303
-1.472226
1.468846
0.346089
1.578277
-1.062165
1.224481
0.822166
0.915523
1.133125
0.890530
-0.999949
0.031278
-0.680530
0.377340
-0.011831
-0.525241
-1.703114
2.340259
-0.379887
-0.539447
-2.742609
-0.914005
-1.487107
0.466259
-0.434870
-1.353350
-0.417393
-1.225690
-1.364641
0.821422
0.935030
0.851412
1.499729
0.354159
-0.352569
-0.282297
0.093163
0.308269
0.202911
0.323633
1.380150
0.593778
-0.752812
0.235857
-0.506785
0.454868
-0.213550
1.972700
-1.204163
1.067855
0.461995
-1.139626
0.811664
-0.737146
0.638245
2.705345
0.407940
1.503845
-0.077621
0.240556
-0.600611
-0.944553
-1.106351
-2.165852
-1.072469
-1.566627
0.465651
-1.591608
0.941281
-0.827252
1.352304
1.933832
0.371632
-0.177376
-0.744493
-0.142149
1.566040
-0.722689
0.642993
-1.245065
0.831496
-0.182542
-1.438541
2.599496
-1.525760
0.679041
-0.410065
0.389088
0.553001
-0.649087
0.904949
-0.645168
0.176114
-1.192534
0.350283
0.529662
-0.999622
-0.148467
0.680216
0.562096
-0.338378
2.619207
-0.517466
-0.768936
0.497997
-0.230381
-1.216302
-0.101475
0.591562
0.105870
0.557003
-0.387682
0.140574
-0.099403
1.241204
-0.082883
-0.362146
-0.169974
-0.433446
-0.418425
0.552516
0.103380
2.270473
0.147564
1.502308
0.457520
1.512435
-0.313122
-1.118941
-0.076219
0.579692
-0.927165
0.287379
0.909161
1.018413
-1.749095
1.529460
0.357239
0.513533
-1.940897
-0.063316
-2.255073
0.213328
1.060887
0.371022
0.133680
-0.729186
1.370475
0.989526
-0.087490
-0.764422
-0.672116
